digraph Tree {
node [shape=box, style="filled", color="black", fontname="helvetica"] ;
edge [fontname="helvetica"] ;
0 [label="petal_length <= 2.35\ngini = 0.665\nsamples = 120\nvalue = [39, 37, 44]\nclass = e", fillcolor="#f7f3fd"] ;
1 [label="gini = 0.0\nsamples = 39\nvalue = [39, 0, 0]\nclass = s", fillcolor="#e58139"] ;
0 -> 1 [labeldistance=2.5, labelangle=45, headlabel="True"] ;
2 [label="petal_width <= 1.75\ngini = 0.496\nsamples = 81\nvalue = [0, 37, 44]\nclass = e", fillcolor="#ebe0fb"] ;
0 -> 2 [labeldistance=2.5, labelangle=-45, headlabel="False"] ;
3 [label="petal_length <= 4.95\ngini = 0.18\nsamples = 40\nvalue = [0, 36, 4]\nclass = p", fillcolor="#4fe88f"] ;
2 -> 3 ;
4 [label="petal_width <= 1.65\ngini = 0.056\nsamples = 35\nvalue = [0, 34, 1]\nclass = p", fillcolor="#3fe685"] ;
3 -> 4 ;
5 [label="gini = 0.0\nsamples = 34\nvalue = [0, 34, 0]\nclass = p", fillcolor="#39e581"] ;
4 -> 5 ;
6 [label="gini = 0.0\nsamples = 1\nvalue = [0, 0, 1]\nclass = e", fillcolor="#8139e5"] ;
4 -> 6 ;
7 [label="petal_width <= 1.55\ngini = 0.48\nsamples = 5\nvalue = [0, 2, 3]\nclass = e", fillcolor="#d5bdf6"] ;
3 -> 7 ;
8 [label="gini = 0.0\nsamples = 2\nvalue = [0, 0, 2]\nclass = e", fillcolor="#8139e5"] ;
7 -> 8 ;
9 [label="petal_length <= 5.45\ngini = 0.444\nsamples = 3\nvalue = [0, 2, 1]\nclass = p", fillcolor="#9cf2c0"] ;
7 -> 9 ;
10 [label="gini = 0.0\nsamples = 2\nvalue = [0, 2, 0]\nclass = p", fillcolor="#39e581"] ;
9 -> 10 ;
11 [label="gini = 0.0\nsamples = 1\nvalue = [0, 0, 1]\nclass = e", fillcolor="#8139e5"] ;
9 -> 11 ;
12 [label="petal_length <= 4.85\ngini = 0.048\nsamples = 41\nvalue = [0, 1, 40]\nclass = e", fillcolor="#843ee6"] ;
2 -> 12 ;
13 [label="sepal_width <= 3.1\ngini = 0.5\nsamples = 2\nvalue = [0, 1, 1]\nclass = p", fillcolor="#ffffff"] ;
12 -> 13 ;
14 [label="gini = 0.0\nsamples = 1\nvalue = [0, 0, 1]\nclass = e", fillcolor="#8139e5"] ;
13 -> 14 ;
15 [label="gini = 0.0\nsamples = 1\nvalue = [0, 1, 0]\nclass = p", fillcolor="#39e581"] ;
13 -> 15 ;
16 [label="gini = 0.0\nsamples = 39\nvalue = [0, 0, 39]\nclass = e", fillcolor="#8139e5"] ;
12 -> 16 ;
}